<?xml version="1.0"?>
<opencv_storage>
<cascade>
  <stageType>BOOST</stageType>
  <featureType>LBP</featureType>
  <height>32</height>
  <width>32</width>
  <stageParams>
    <boostType>GAB</boostType>
    <minHitRate>9.9500000476837158e-01</minHitRate>
    <maxFalseAlarm>1.0000000149011612e-01</maxFalseAlarm>
    <weightTrimRate>9.4999999999999996e-01</weightTrimRate>
    <maxDepth>1</maxDepth>
    <maxWeakCount>100</maxWeakCount></stageParams>
  <featureParams>
    <maxCatCount>256</maxCatCount>
    <featSize>1</featSize></featureParams>
  <stageNum>5</stageNum>
  <stages>
    <!-- stage 0 -->
    <_>
      <maxWeakCount>1</maxWeakCount>
      <stageThreshold>9.8019802570343018e-01</stageThreshold>
      <weakClassifiers>
        <_>
          <internalNodes>
            0 -1 0 -669658981 -788447223 3 -788430847 -1073708882
            -1475870592 -2147450166 1527456395</internalNodes>
          <leafValues>
            -1. 9.8019802570343018e-01</leafValues></_></weakClassifiers></_>
    <!-- stage 1 -->
    <_>
      <maxWeakCount>1</maxWeakCount>
      <stageThreshold>9.6850395202636719e-01</stageThreshold>
      <weakClassifiers>
        <_>
          <internalNodes>
            0 -1 4 -539504161 -749809011 1218478831 -8142675 -1072700225
            -125122405 -2146579733 -4210001</internalNodes>
          <leafValues>
            -1. 9.6850395202636719e-01</leafValues></_></weakClassifiers></_>
    <!-- stage 2 -->
    <_>
      <maxWeakCount>1</maxWeakCount>
      <stageThreshold>9.4174754619598389e-01</stageThreshold>
      <weakClassifiers>
        <_>
          <internalNodes>
            0 -1 3 -236720161 -213416183 -1067327229 -201211257
            -1849052261 -1863232448 -507259989 -251921505</internalNodes>
          <leafValues>
            -1. 9.4174754619598389e-01</leafValues></_></weakClassifiers></_>
    <!-- stage 3 -->
    <_>
      <maxWeakCount>1</maxWeakCount>
      <stageThreshold>9.4531250000000000e-01</stageThreshold>
      <weakClassifiers>
        <_>
          <internalNodes>
            0 -1 5 -204474401 -1320844985 287380375 2105770263
            -1341800294 -1560174080 -1979498305 -335821909</internalNodes>
          <leafValues>
            -9.9180328845977783e-01 9.4531250000000000e-01</leafValues></_></weakClassifiers></_>
    <!-- stage 4 -->
    <_>
      <maxWeakCount>2</maxWeakCount>
      <stageThreshold>-2.9502891004085541e-02</stageThreshold>
      <weakClassifiers>
        <_>
          <internalNodes>
            0 -1 2 -9225 -117193973 822116487 -148389365 -2136612162
            -1031679871 -384315158 -2609</internalNodes>
          <leafValues>
            -9.7570848464965820e-01 9.5256918668746948e-01</leafValues></_>
        <_>
          <internalNodes>
            0 -1 1 -73924641 -619476090 -2147268451 -72879261 2067116507
            -394067826 -1397511009 -1077953541</internalNodes>
          <leafValues>
            -9.8174601793289185e-01 9.4620561599731445e-01</leafValues></_></weakClassifiers></_></stages>
  <features>
    <_>
      <rect>
        3 9 9 5</rect></_>
    <_>
      <rect>
        12 8 4 5</rect></_>
    <_>
      <rect>
        12 11 1 3</rect></_>
    <_>
      <rect>
        15 14 1 1</rect></_>
    <_>
      <rect>
        15 15 1 1</rect></_>
    <_>
      <rect>
        15 16 1 2</rect></_></features></cascade>
</opencv_storage>
